digraph Tree {
node [shape=box, style="filled, rounded", color="black", fontname=helvetica] ;
edge [fontname=helvetica] ;
0 [label="charges <= 15294.714\ngini = 0.326\nsamples = 1338\nvalue = [1064, 274]\nclass = no", fillcolor="#eca16c"] ;
1 [label="charges <= 14453.74\ngini = 0.016\nsamples = 985\nvalue = [977, 8]\nclass = no", fillcolor="#e5823b"] ;
0 -> 1 [labeldistance=2.5, labelangle=45, headlabel="True"] ;
2 [label="charges <= 13736.672\ngini = 0.008\nsamples = 971\nvalue = [967, 4]\nclass = no", fillcolor="#e5823a"] ;
1 -> 2 ;
3 [label="bmi <= 17.338\ngini = 0.002\nsamples = 935\nvalue = [934, 1]\nclass = no", fillcolor="#e58139"] ;
2 -> 3 ;
4 [label="charges <= 9853.718\ngini = 0.278\nsamples = 6\nvalue = [5, 1]\nclass = no", fillcolor="#ea9a61"] ;
3 -> 4 ;
5 [label="gini = 0.0\nsamples = 5\nvalue = [5, 0]\nclass = no", fillcolor="#e58139"] ;
4 -> 5 ;
6 [label="gini = 0.0\nsamples = 1\nvalue = [0, 1]\nclass = yes", fillcolor="#399de5"] ;
4 -> 6 ;
7 [label="gini = 0.0\nsamples = 929\nvalue = [929, 0]\nclass = no", fillcolor="#e58139"] ;
3 -> 7 ;
8 [label="bmi <= 22.392\ngini = 0.153\nsamples = 36\nvalue = [33, 3]\nclass = no", fillcolor="#e78c4b"] ;
2 -> 8 ;
9 [label="charges <= 14316.657\ngini = 0.48\nsamples = 5\nvalue = [2, 3]\nclass = yes", fillcolor="#bddef6"] ;
8 -> 9 ;
10 [label="gini = 0.0\nsamples = 3\nvalue = [0, 3]\nclass = yes", fillcolor="#399de5"] ;
9 -> 10 ;
11 [label="gini = 0.0\nsamples = 2\nvalue = [2, 0]\nclass = no", fillcolor="#e58139"] ;
9 -> 11 ;
12 [label="gini = 0.0\nsamples = 31\nvalue = [31, 0]\nclass = no", fillcolor="#e58139"] ;
8 -> 12 ;
13 [label="bmi <= 23.97\ngini = 0.408\nsamples = 14\nvalue = [10, 4]\nclass = no", fillcolor="#efb388"] ;
1 -> 13 ;
14 [label="gini = 0.0\nsamples = 4\nvalue = [0, 4]\nclass = yes", fillcolor="#399de5"] ;
13 -> 14 ;
15 [label="gini = 0.0\nsamples = 10\nvalue = [10, 0]\nclass = no", fillcolor="#e58139"] ;
13 -> 15 ;
16 [label="charges <= 32328.501\ngini = 0.371\nsamples = 353\nvalue = [87, 266]\nclass = yes", fillcolor="#7abdee"] ;
0 -> 16 [labeldistance=2.5, labelangle=-45, headlabel="False"] ;
17 [label="bmi <= 30.01\ngini = 0.486\nsamples = 199\nvalue = [83, 116]\nclass = yes", fillcolor="#c7e3f8"] ;
16 -> 17 ;
18 [label="charges <= 24453.357\ngini = 0.351\nsamples = 150\nvalue = [34, 116]\nclass = yes", fillcolor="#73baed"] ;
17 -> 18 ;
19 [label="bmi <= 29.225\ngini = 0.263\nsamples = 109\nvalue = [17, 92]\nclass = yes", fillcolor="#5eafea"] ;
18 -> 19 ;
20 [label="charges <= 21981.574\ngini = 0.213\nsamples = 99\nvalue = [12, 87]\nclass = yes", fillcolor="#54abe9"] ;
19 -> 20 ;
21 [label="bmi <= 18.905\ngini = 0.142\nsamples = 78\nvalue = [6, 72]\nclass = yes", fillcolor="#49a5e7"] ;
20 -> 21 ;
22 [label="bmi <= 18.507\ngini = 0.5\nsamples = 2\nvalue = [1, 1]\nclass = no", fillcolor="#ffffff"] ;
21 -> 22 ;
23 [label="gini = 0.0\nsamples = 1\nvalue = [0, 1]\nclass = yes", fillcolor="#399de5"] ;
22 -> 23 ;
24 [label="gini = 0.0\nsamples = 1\nvalue = [1, 0]\nclass = no", fillcolor="#e58139"] ;
22 -> 24 ;
25 [label="bmi <= 27.43\ngini = 0.123\nsamples = 76\nvalue = [5, 71]\nclass = yes", fillcolor="#47a4e7"] ;
21 -> 25 ;
26 [label="gini = 0.038\nsamples = 51\nvalue = [1, 50]\nclass = yes", fillcolor="#3d9fe6"] ;
25 -> 26 ;
27 [label="gini = 0.269\nsamples = 25\nvalue = [4, 21]\nclass = yes", fillcolor="#5fb0ea"] ;
25 -> 27 ;
28 [label="charges <= 23297.737\ngini = 0.408\nsamples = 21\nvalue = [6, 15]\nclass = yes", fillcolor="#88c4ef"] ;
20 -> 28 ;
29 [label="bmi <= 27.547\ngini = 0.5\nsamples = 12\nvalue = [6, 6]\nclass = no", fillcolor="#ffffff"] ;
28 -> 29 ;
30 [label="gini = 0.48\nsamples = 10\nvalue = [6, 4]\nclass = no", fillcolor="#f6d5bd"] ;
29 -> 30 ;
31 [label="gini = 0.0\nsamples = 2\nvalue = [0, 2]\nclass = yes", fillcolor="#399de5"] ;
29 -> 31 ;
32 [label="gini = 0.0\nsamples = 9\nvalue = [0, 9]\nclass = yes", fillcolor="#399de5"] ;
28 -> 32 ;
33 [label="bmi <= 29.805\ngini = 0.5\nsamples = 10\nvalue = [5, 5]\nclass = no", fillcolor="#ffffff"] ;
19 -> 33 ;
34 [label="charges <= 20105.632\ngini = 0.278\nsamples = 6\nvalue = [5, 1]\nclass = no", fillcolor="#ea9a61"] ;
33 -> 34 ;
35 [label="charges <= 19045.667\ngini = 0.444\nsamples = 3\nvalue = [2, 1]\nclass = no", fillcolor="#f2c09c"] ;
34 -> 35 ;
36 [label="gini = 0.0\nsamples = 2\nvalue = [2, 0]\nclass = no", fillcolor="#e58139"] ;
35 -> 36 ;
37 [label="gini = 0.0\nsamples = 1\nvalue = [0, 1]\nclass = yes", fillcolor="#399de5"] ;
35 -> 37 ;
38 [label="gini = 0.0\nsamples = 3\nvalue = [3, 0]\nclass = no", fillcolor="#e58139"] ;
34 -> 38 ;
39 [label="gini = 0.0\nsamples = 4\nvalue = [0, 4]\nclass = yes", fillcolor="#399de5"] ;
33 -> 39 ;
40 [label="bmi <= 29.767\ngini = 0.485\nsamples = 41\nvalue = [17, 24]\nclass = yes", fillcolor="#c5e2f7"] ;
18 -> 40 ;
41 [label="charges <= 29844.893\ngini = 0.497\nsamples = 37\nvalue = [17, 20]\nclass = yes", fillcolor="#e1f0fb"] ;
40 -> 41 ;
42 [label="charges <= 28936.803\ngini = 0.478\nsamples = 33\nvalue = [13, 20]\nclass = yes", fillcolor="#baddf6"] ;
41 -> 42 ;
43 [label="bmi <= 22.515\ngini = 0.495\nsamples = 29\nvalue = [13, 16]\nclass = yes", fillcolor="#daedfa"] ;
42 -> 43 ;
44 [label="gini = 0.0\nsamples = 1\nvalue = [1, 0]\nclass = no", fillcolor="#e58139"] ;
43 -> 44 ;
45 [label="gini = 0.49\nsamples = 28\nvalue = [12, 16]\nclass = yes", fillcolor="#cee6f8"] ;
43 -> 45 ;
46 [label="gini = 0.0\nsamples = 4\nvalue = [0, 4]\nclass = yes", fillcolor="#399de5"] ;
42 -> 46 ;
47 [label="gini = 0.0\nsamples = 4\nvalue = [4, 0]\nclass = no", fillcolor="#e58139"] ;
41 -> 47 ;
48 [label="gini = 0.0\nsamples = 4\nvalue = [0, 4]\nclass = yes", fillcolor="#399de5"] ;
40 -> 48 ;
49 [label="gini = 0.0\nsamples = 49\nvalue = [49, 0]\nclass = no", fillcolor="#e58139"] ;
17 -> 49 ;
50 [label="charges <= 36930.434\ngini = 0.051\nsamples = 154\nvalue = [4, 150]\nclass = yes", fillcolor="#3ea0e6"] ;
16 -> 50 ;
51 [label="charges <= 36904.672\ngini = 0.18\nsamples = 40\nvalue = [4, 36]\nclass = yes", fillcolor="#4fa8e8"] ;
50 -> 51 ;
52 [label="bmi <= 37.24\ngini = 0.142\nsamples = 39\nvalue = [3, 36]\nclass = yes", fillcolor="#49a5e7"] ;
51 -> 52 ;
53 [label="charges <= 36488.928\ngini = 0.102\nsamples = 37\nvalue = [2, 35]\nclass = yes", fillcolor="#44a3e6"] ;
52 -> 53 ;
54 [label="bmi <= 27.555\ngini = 0.057\nsamples = 34\nvalue = [1, 33]\nclass = yes", fillcolor="#3fa0e6"] ;
53 -> 54 ;
55 [label="bmi <= 24.847\ngini = 0.444\nsamples = 3\nvalue = [1, 2]\nclass = yes", fillcolor="#9ccef2"] ;
54 -> 55 ;
56 [label="gini = 0.0\nsamples = 2\nvalue = [0, 2]\nclass = yes", fillcolor="#399de5"] ;
55 -> 56 ;
57 [label="gini = 0.0\nsamples = 1\nvalue = [1, 0]\nclass = no", fillcolor="#e58139"] ;
55 -> 57 ;
58 [label="gini = 0.0\nsamples = 31\nvalue = [0, 31]\nclass = yes", fillcolor="#399de5"] ;
54 -> 58 ;
59 [label="charges <= 36708.875\ngini = 0.444\nsamples = 3\nvalue = [1, 2]\nclass = yes", fillcolor="#9ccef2"] ;
53 -> 59 ;
60 [label="gini = 0.0\nsamples = 1\nvalue = [1, 0]\nclass = no", fillcolor="#e58139"] ;
59 -> 60 ;
61 [label="gini = 0.0\nsamples = 2\nvalue = [0, 2]\nclass = yes", fillcolor="#399de5"] ;
59 -> 61 ;
62 [label="bmi <= 37.847\ngini = 0.5\nsamples = 2\nvalue = [1, 1]\nclass = no", fillcolor="#ffffff"] ;
52 -> 62 ;
63 [label="gini = 0.0\nsamples = 1\nvalue = [1, 0]\nclass = no", fillcolor="#e58139"] ;
62 -> 63 ;
64 [label="gini = 0.0\nsamples = 1\nvalue = [0, 1]\nclass = yes", fillcolor="#399de5"] ;
62 -> 64 ;
65 [label="gini = 0.0\nsamples = 1\nvalue = [1, 0]\nclass = no", fillcolor="#e58139"] ;
51 -> 65 ;
66 [label="gini = 0.0\nsamples = 114\nvalue = [0, 114]\nclass = yes", fillcolor="#399de5"] ;
50 -> 66 ;
}