digraph Tree {
node [shape=box, style="filled, rounded", color="black", fontname=helvetica] ;
edge [fontname=helvetica] ;
0 [label="FLC <= 2.5\ngini = 0.807\nsamples = 1008406\nvalue = [14326, 204216, 229244, 235256, 183044, 106941, 35379]\nclass = 40s", fillcolor="#fdffff"] ;
1 [label="FLC <= 1.5\ngini = 0.605\nsamples = 479212\nvalue = [14326, 204216, 216441, 44075, 154, 0, 0]\nclass = 30s", fillcolor="#f6fef7"] ;
0 -> 1 [labeldistance=2.5, labelangle=45, headlabel="True"] ;
2 [label="AMT/CST <= 14112.823\ngini = 0.396\nsamples = 224618\nvalue = [14326, 168958, 41334, 0, 0, 0, 0]\nclass = 20s", fillcolor="#cded75"] ;
1 -> 2 ;
3 [label="CSTMR_CNT <= 25.5\ngini = 0.438\nsamples = 73207\nvalue = [9302, 52948, 10957, 0, 0, 0, 0]\nclass = 20s", fillcolor="#ceed79"] ;
2 -> 3 ;
4 [label="AMT/CST <= 7967.083\ngini = 0.435\nsamples = 57455\nvalue = [6418, 41656, 9381, 0, 0, 0, 0]\nclass = 20s", fillcolor="#cfee7a"] ;
3 -> 4 ;
5 [label="gini = 0.464\nsamples = 20330\nvalue = [2942, 14250, 3138, 0, 0, 0, 0]\nclass = 20s", fillcolor="#d0ee7f"] ;
4 -> 5 ;
6 [label="gini = 0.418\nsamples = 37125\nvalue = [3476, 27406, 6243, 0, 0, 0, 0]\nclass = 20s", fillcolor="#ceed77"] ;
4 -> 6 ;
7 [label="AMT/CST <= 9802.31\ngini = 0.443\nsamples = 15752\nvalue = [2884, 11292, 1576, 0, 0, 0, 0]\nclass = 20s", fillcolor="#d0ee7e"] ;
3 -> 7 ;
8 [label="gini = 0.501\nsamples = 4321\nvalue = [1283, 2756, 282, 0, 0, 0, 0]\nclass = 20s", fillcolor="#dcf29f"] ;
7 -> 8 ;
9 [label="gini = 0.41\nsamples = 11431\nvalue = [1601, 8536, 1294, 0, 0, 0, 0]\nclass = 20s", fillcolor="#cced73"] ;
7 -> 9 ;
10 [label="AMT/CST <= 48240.834\ngini = 0.372\nsamples = 151411\nvalue = [5024, 116010, 30377, 0, 0, 0, 0]\nclass = 20s", fillcolor="#cced73"] ;
2 -> 10 ;
11 [label="CSTMR_CNT <= 724.5\ngini = 0.358\nsamples = 118782\nvalue = [4676, 92554, 21552, 0, 0, 0, 0]\nclass = 20s", fillcolor="#caec6e"] ;
10 -> 11 ;
12 [label="gini = 0.362\nsamples = 116780\nvalue = [4666, 90679, 21435, 0, 0, 0, 0]\nclass = 20s", fillcolor="#cbec6f"] ;
11 -> 12 ;
13 [label="gini = 0.119\nsamples = 2002\nvalue = [10, 1875, 117, 0, 0, 0, 0]\nclass = 20s", fillcolor="#bce746"] ;
11 -> 13 ;
14 [label="gender <= 1.5\ngini = 0.41\nsamples = 32629\nvalue = [348, 23456, 8825, 0, 0, 0, 0]\nclass = 20s", fillcolor="#d3ef85"] ;
10 -> 14 ;
15 [label="gini = 0.422\nsamples = 22188\nvalue = [229, 15627, 6332, 0, 0, 0, 0]\nclass = 20s", fillcolor="#d5f08b"] ;
14 -> 15 ;
16 [label="gini = 0.381\nsamples = 10441\nvalue = [119, 7829, 2493, 0, 0, 0, 0]\nclass = 20s", fillcolor="#cfee7a"] ;
14 -> 16 ;
17 [label="gender <= 1.5\ngini = 0.478\nsamples = 254594\nvalue = [0, 35258, 175107, 44075, 154, 0, 0]\nclass = 30s", fillcolor="#84ef90"] ;
1 -> 17 ;
18 [label="CSTMR_CNT <= 14.5\ngini = 0.465\nsamples = 151800\nvalue = [0, 16833, 105885, 28985, 97, 0, 0]\nclass = 30s", fillcolor="#83ef90"] ;
17 -> 18 ;
19 [label="AMT <= 89250.0\ngini = 0.491\nsamples = 96849\nvalue = [0, 12125, 65199, 19450, 75, 0, 0]\nclass = 30s", fillcolor="#8af096"] ;
18 -> 19 ;
20 [label="gini = 0.518\nsamples = 33488\nvalue = [0, 4953, 21653, 6853, 29, 0, 0]\nclass = 30s", fillcolor="#91f19c"] ;
19 -> 20 ;
21 [label="gini = 0.475\nsamples = 63361\nvalue = [0, 7172, 43546, 12597, 46, 0, 0]\nclass = 30s", fillcolor="#86ef92"] ;
19 -> 21 ;
22 [label="AMT/CST <= 59397.42\ngini = 0.414\nsamples = 54951\nvalue = [0, 4708, 40686, 9535, 22, 0, 0]\nclass = 30s", fillcolor="#77ed85"] ;
18 -> 22 ;
23 [label="gini = 0.41\nsamples = 46468\nvalue = [0, 4316, 34644, 7494, 14, 0, 0]\nclass = 30s", fillcolor="#75ed83"] ;
22 -> 23 ;
24 [label="gini = 0.433\nsamples = 8483\nvalue = [0, 392, 6042, 2041, 8, 0, 0]\nclass = 30s", fillcolor="#84ef90"] ;
22 -> 24 ;
25 [label="AMT <= 222925.0\ngini = 0.493\nsamples = 102794\nvalue = [0, 18425, 69222, 15090, 57, 0, 0]\nclass = 30s", fillcolor="#88ef94"] ;
17 -> 25 ;
26 [label="AMT/CST <= 28414.524\ngini = 0.52\nsamples = 49511\nvalue = [0, 10380, 31882, 7221, 28, 0, 0]\nclass = 30s", fillcolor="#92f19d"] ;
25 -> 26 ;
27 [label="gini = 0.525\nsamples = 38298\nvalue = [0, 8401, 24437, 5439, 21, 0, 0]\nclass = 30s", fillcolor="#95f1a0"] ;
26 -> 27 ;
28 [label="gini = 0.503\nsamples = 11213\nvalue = [0, 1979, 7445, 1782, 7, 0, 0]\nclass = 30s", fillcolor="#8af096"] ;
26 -> 28 ;
29 [label="AMT/CST <= 51047.301\ngini = 0.464\nsamples = 53283\nvalue = [0, 8045, 37340, 7869, 29, 0, 0]\nclass = 30s", fillcolor="#7fee8c"] ;
25 -> 29 ;
30 [label="gini = 0.465\nsamples = 36822\nvalue = [0, 6288, 25754, 4767, 13, 0, 0]\nclass = 30s", fillcolor="#81ee8e"] ;
29 -> 30 ;
31 [label="gini = 0.458\nsamples = 16461\nvalue = [0, 1757, 11586, 3102, 16, 0, 0]\nclass = 30s", fillcolor="#81ee8e"] ;
29 -> 31 ;
32 [label="FLC <= 4.5\ngini = 0.704\nsamples = 529194\nvalue = [0, 0, 12803, 191181, 182890, 106941, 35379]\nclass = 40s", fillcolor="#fafefe"] ;
0 -> 32 [labeldistance=2.5, labelangle=-45, headlabel="False"] ;
33 [label="FLC <= 3.5\ngini = 0.531\nsamples = 386874\nvalue = [0, 0, 12803, 191181, 182890, 0, 0]\nclass = 40s", fillcolor="#f7fefe"] ;
32 -> 33 ;
34 [label="CSTMR_CNT <= 116.5\ngini = 0.229\nsamples = 162470\nvalue = [0, 0, 12803, 141842, 7825, 0, 0]\nclass = 40s", fillcolor="#54e9e6"] ;
33 -> 34 ;
35 [label="CSTMR_CNT <= 5.5\ngini = 0.239\nsamples = 148827\nvalue = [0, 0, 12366, 129064, 7397, 0, 0]\nclass = 40s", fillcolor="#56e9e6"] ;
34 -> 35 ;
36 [label="gini = 0.265\nsamples = 59928\nvalue = [0, 0, 5691, 50954, 3283, 0, 0]\nclass = 40s", fillcolor="#5ae9e7"] ;
35 -> 36 ;
37 [label="gini = 0.22\nsamples = 88899\nvalue = [0, 0, 6675, 78110, 4114, 0, 0]\nclass = 40s", fillcolor="#53e8e6"] ;
35 -> 37 ;
38 [label="CSTMR_CNT <= 457.5\ngini = 0.121\nsamples = 13643\nvalue = [0, 0, 437, 12778, 428, 0, 0]\nclass = 40s", fillcolor="#46e7e4"] ;
34 -> 38 ;
39 [label="gini = 0.155\nsamples = 9293\nvalue = [0, 0, 404, 8527, 362, 0, 0]\nclass = 40s", fillcolor="#4ae7e4"] ;
38 -> 39 ;
40 [label="gini = 0.045\nsamples = 4350\nvalue = [0, 0, 33, 4251, 66, 0, 0]\nclass = 40s", fillcolor="#3ee6e3"] ;
38 -> 40 ;
41 [label="CSTMR_CNT <= 982.5\ngini = 0.343\nsamples = 224404\nvalue = [0, 0, 0, 49339, 175065, 0, 0]\nclass = 50s", fillcolor="#7186ec"] ;
33 -> 41 ;
42 [label="CSTMR_CNT <= 5.5\ngini = 0.345\nsamples = 221329\nvalue = [0, 0, 0, 49086, 172243, 0, 0]\nclass = 50s", fillcolor="#7186ec"] ;
41 -> 42 ;
43 [label="gini = 0.362\nsamples = 83976\nvalue = [0, 0, 0, 19931, 64045, 0, 0]\nclass = 50s", fillcolor="#778bed"] ;
42 -> 43 ;
44 [label="gini = 0.334\nsamples = 137353\nvalue = [0, 0, 0, 29155, 108198, 0, 0]\nclass = 50s", fillcolor="#6e84ec"] ;
42 -> 44 ;
45 [label="CSTMR_CNT <= 2019.5\ngini = 0.151\nsamples = 3075\nvalue = [0, 0, 0, 253, 2822, 0, 0]\nclass = 50s", fillcolor="#4b65e7"] ;
41 -> 45 ;
46 [label="gini = 0.22\nsamples = 1716\nvalue = [0, 0, 0, 216, 1500, 0, 0]\nclass = 50s", fillcolor="#566ee9"] ;
45 -> 46 ;
47 [label="gini = 0.053\nsamples = 1359\nvalue = [0, 0, 0, 37, 1322, 0, 0]\nclass = 50s", fillcolor="#3f5be6"] ;
45 -> 47 ;
48 [label="AMT/CST <= 18666.396\ngini = 0.374\nsamples = 142320\nvalue = [0, 0, 0, 0, 0, 106941, 35379]\nclass = 60s", fillcolor="#cb7bee"] ;
32 -> 48 ;
49 [label="CSTMR_CNT <= 285.5\ngini = 0.346\nsamples = 37165\nvalue = [0, 0, 0, 0, 0, 28901, 8264]\nclass = 60s", fillcolor="#c772ec"] ;
48 -> 49 ;
50 [label="CSTMR_CNT <= 7.5\ngini = 0.349\nsamples = 36361\nvalue = [0, 0, 0, 0, 0, 28171, 8190]\nclass = 60s", fillcolor="#c873ed"] ;
49 -> 50 ;
51 [label="gini = 0.363\nsamples = 20923\nvalue = [0, 0, 0, 0, 0, 15931, 4992]\nclass = 60s", fillcolor="#c977ed"] ;
50 -> 51 ;
52 [label="gini = 0.328\nsamples = 15438\nvalue = [0, 0, 0, 0, 0, 12240, 3198]\nclass = 60s", fillcolor="#c56dec"] ;
50 -> 52 ;
53 [label="AMT/CST <= 15831.854\ngini = 0.167\nsamples = 804\nvalue = [0, 0, 0, 0, 0, 730, 74]\nclass = 60s", fillcolor="#b94de8"] ;
49 -> 53 ;
54 [label="gini = 0.243\nsamples = 439\nvalue = [0, 0, 0, 0, 0, 377, 62]\nclass = 60s", fillcolor="#be5ae9"] ;
53 -> 54 ;
55 [label="gini = 0.064\nsamples = 365\nvalue = [0, 0, 0, 0, 0, 353, 12]\nclass = 60s", fillcolor="#b440e6"] ;
53 -> 55 ;
56 [label="CSTMR_CNT <= 1968.5\ngini = 0.383\nsamples = 105155\nvalue = [0, 0, 0, 0, 0, 78040, 27115]\nclass = 60s", fillcolor="#cc7eee"] ;
48 -> 56 ;
57 [label="AMT/CST <= 109491.801\ngini = 0.384\nsamples = 104479\nvalue = [0, 0, 0, 0, 0, 77408, 27071]\nclass = 60s", fillcolor="#cc7eee"] ;
56 -> 57 ;
58 [label="gini = 0.389\nsamples = 90862\nvalue = [0, 0, 0, 0, 0, 66796, 24066]\nclass = 60s", fillcolor="#cd80ee"] ;
57 -> 58 ;
59 [label="gini = 0.344\nsamples = 13617\nvalue = [0, 0, 0, 0, 0, 10612, 3005]\nclass = 60s", fillcolor="#c771ec"] ;
57 -> 59 ;
60 [label="CSTMR_CNT <= 2857.0\ngini = 0.122\nsamples = 676\nvalue = [0, 0, 0, 0, 0, 632, 44]\nclass = 60s", fillcolor="#b647e7"] ;
56 -> 60 ;
61 [label="gini = 0.23\nsamples = 302\nvalue = [0, 0, 0, 0, 0, 262, 40]\nclass = 60s", fillcolor="#bd57e9"] ;
60 -> 61 ;
62 [label="gini = 0.021\nsamples = 374\nvalue = [0, 0, 0, 0, 0, 370, 4]\nclass = 60s", fillcolor="#b23be5"] ;
60 -> 62 ;
}